<?xml version="1.0"?>
<opencv_storage>
<cascade>
  <stageType>BOOST</stageType>
  <featureType>HAAR</featureType>
  <height>34</height>
  <width>34</width>
  <stageParams>
    <boostType>GAB</boostType>
    <minHitRate>9.9500000476837158e-01</minHitRate>
    <maxFalseAlarm>5.0000000000000000e-01</maxFalseAlarm>
    <weightTrimRate>9.4999999999999996e-01</weightTrimRate>
    <maxDepth>1</maxDepth>
    <maxWeakCount>100</maxWeakCount></stageParams>
  <featureParams>
    <maxCatCount>0</maxCatCount>
    <featSize>1</featSize>
    <mode>BASIC</mode></featureParams>
  <stageNum>13</stageNum>
  <stages>
    <!-- stage 0 -->
    <_>
      <maxWeakCount>2</maxWeakCount>
      <stageThreshold>-8.5286453366279602e-02</stageThreshold>
      <weakClassifiers>
        <_>
          <internalNodes>
            0 -1 12 2.7907280251383781e-02</internalNodes>
          <leafValues>
            -9.4463670253753662e-01 9.2563599348068237e-01</leafValues></_>
        <_>
          <internalNodes>
            0 -1 19 -1.9527532160282135e-02</internalNodes>
          <leafValues>
            8.5935020446777344e-01 -9.3224978446960449e-01</leafValues></_></weakClassifiers></_>
    <!-- stage 1 -->
    <_>
      <maxWeakCount>2</maxWeakCount>
      <stageThreshold>-1.7713758349418640e-01</stageThreshold>
      <weakClassifiers>
        <_>
          <internalNodes>
            0 -1 35 9.7922421991825104e-03</internalNodes>
          <leafValues>
            -9.3142855167388916e-01 8.2697671651840210e-01</leafValues></_>
        <_>
          <internalNodes>
            0 -1 32 -1.5385033562779427e-02</internalNodes>
          <leafValues>
            7.5429099798202515e-01 -9.0932416915893555e-01</leafValues></_></weakClassifiers></_>
    <!-- stage 2 -->
    <_>
      <maxWeakCount>2</maxWeakCount>
      <stageThreshold>-6.6632360219955444e-02</stageThreshold>
      <weakClassifiers>
        <_>
          <internalNodes>
            0 -1 33 1.6016265377402306e-02</internalNodes>
          <leafValues>
            -8.7762904167175293e-01 7.9758590459823608e-01</leafValues></_>
        <_>
          <internalNodes>
            0 -1 5 5.6138098239898682e-02</internalNodes>
          <leafValues>
            -7.9033821821212769e-01 8.1099671125411987e-01</leafValues></_></weakClassifiers></_>
    <!-- stage 3 -->
    <_>
      <maxWeakCount>2</maxWeakCount>
      <stageThreshold>-9.8503731191158295e-02</stageThreshold>
      <weakClassifiers>
        <_>
          <internalNodes>
            0 -1 28 -5.2895750850439072e-02</internalNodes>
          <leafValues>
            8.2200956344604492e-01 -8.2702702283859253e-01</leafValues></_>
        <_>
          <internalNodes>
            0 -1 27 3.1282015144824982e-02</internalNodes>
          <leafValues>
            -7.5382745265960693e-01 7.2852331399917603e-01</leafValues></_></weakClassifiers></_>
    <!-- stage 4 -->
    <_>
      <maxWeakCount>2</maxWeakCount>
      <stageThreshold>-2.1209783852100372e-01</stageThreshold>
      <weakClassifiers>
        <_>
          <internalNodes>
            0 -1 8 -2.2045932710170746e-02</internalNodes>
          <leafValues>
            -8.8059699535369873e-01 7.1883291006088257e-01</leafValues></_>
        <_>
          <internalNodes>
            0 -1 39 -2.7713660150766373e-02</internalNodes>
          <leafValues>
            6.6849917173385620e-01 -7.7019929885864258e-01</leafValues></_></weakClassifiers></_>
    <!-- stage 5 -->
    <_>
      <maxWeakCount>4</maxWeakCount>
      <stageThreshold>-1.2896132469177246e+00</stageThreshold>
      <weakClassifiers>
        <_>
          <internalNodes>
            0 -1 9 -1.8462674692273140e-02</internalNodes>
          <leafValues>
            -7.3592233657836914e-01 7.1797233819961548e-01</leafValues></_>
        <_>
          <internalNodes>
            0 -1 22 2.5718737393617630e-02</internalNodes>
          <leafValues>
            -8.1654632091522217e-01 6.3768303394317627e-01</leafValues></_>
        <_>
          <internalNodes>
            0 -1 43 -2.5285959243774414e-02</internalNodes>
          <leafValues>
            7.2421449422836304e-01 -6.1941468715667725e-01</leafValues></_>
        <_>
          <internalNodes>
            0 -1 18 -1.1181732639670372e-02</internalNodes>
          <leafValues>
            7.3040115833282471e-01 -5.7195925712585449e-01</leafValues></_></weakClassifiers></_>
    <!-- stage 6 -->
    <_>
      <maxWeakCount>5</maxWeakCount>
      <stageThreshold>-7.7903687953948975e-01</stageThreshold>
      <weakClassifiers>
        <_>
          <internalNodes>
            0 -1 36 -1.1967506259679794e-02</internalNodes>
          <leafValues>
            6.4745759963989258e-01 -8.6666667461395264e-01</leafValues></_>
        <_>
          <internalNodes>
            0 -1 2 3.1452029943466187e-02</internalNodes>
          <leafValues>
            -5.6198561191558838e-01 8.1427085399627686e-01</leafValues></_>
        <_>
          <internalNodes>
            0 -1 44 -1.7671611160039902e-02</internalNodes>
          <leafValues>
            7.5272530317306519e-01 -5.5645889043807983e-01</leafValues></_>
        <_>
          <internalNodes>
            0 -1 11 2.1420756354928017e-02</internalNodes>
          <leafValues>
            -9.6851515769958496e-01 4.1637265682220459e-01</leafValues></_>
        <_>
          <internalNodes>
            0 -1 24 -7.2794765233993530e-02</internalNodes>
          <leafValues>
            7.8970164060592651e-01 -5.6732624769210815e-01</leafValues></_></weakClassifiers></_>
    <!-- stage 7 -->
    <_>
      <maxWeakCount>4</maxWeakCount>
      <stageThreshold>-1.1435528993606567e+00</stageThreshold>
      <weakClassifiers>
        <_>
          <internalNodes>
            0 -1 16 -3.8951623719185591e-03</internalNodes>
          <leafValues>
            6.7764914035797119e-01 -7.5681340694427490e-01</leafValues></_>
        <_>
          <internalNodes>
            0 -1 4 3.1168732792139053e-02</internalNodes>
          <leafValues>
            -7.0781058073043823e-01 6.3169348239898682e-01</leafValues></_>
        <_>
          <internalNodes>
            0 -1 41 1.3201318681240082e-02</internalNodes>
          <leafValues>
            -5.8264714479446411e-01 8.4264439344406128e-01</leafValues></_>
        <_>
          <internalNodes>
            0 -1 21 1.1373670771718025e-02</internalNodes>
          <leafValues>
            -5.2157336473464966e-01 7.2345280647277832e-01</leafValues></_></weakClassifiers></_>
    <!-- stage 8 -->
    <_>
      <maxWeakCount>4</maxWeakCount>
      <stageThreshold>-2.6697188615798950e-01</stageThreshold>
      <weakClassifiers>
        <_>
          <internalNodes>
            0 -1 13 -1.4289785176515579e-03</internalNodes>
          <leafValues>
            -9.3939393758773804e-01 5.5905508995056152e-01</leafValues></_>
        <_>
          <internalNodes>
            0 -1 3 3.5110518336296082e-02</internalNodes>
          <leafValues>
            -5.8986932039260864e-01 7.4285846948623657e-01</leafValues></_>
        <_>
          <internalNodes>
            0 -1 6 9.5277009531855583e-03</internalNodes>
          <leafValues>
            4.5556604862213135e-01 -8.9466339349746704e-01</leafValues></_>
        <_>
          <internalNodes>
            0 -1 7 3.7355341017246246e-02</internalNodes>
          <leafValues>
            -5.2600246667861938e-01 7.2790831327438354e-01</leafValues></_></weakClassifiers></_>
    <!-- stage 9 -->
    <_>
      <maxWeakCount>5</maxWeakCount>
      <stageThreshold>-6.1443501710891724e-01</stageThreshold>
      <weakClassifiers>
        <_>
          <internalNodes>
            0 -1 31 5.3743377793580294e-04</internalNodes>
          <leafValues>
            -9.0447759628295898e-01 5.5573123693466187e-01</leafValues></_>
        <_>
          <internalNodes>
            0 -1 40 -1.7822496592998505e-02</internalNodes>
          <leafValues>
            7.8989553451538086e-01 -5.1596981287002563e-01</leafValues></_>
        <_>
          <internalNodes>
            0 -1 20 -2.8256997466087341e-03</internalNodes>
          <leafValues>
            5.7828873395919800e-01 -7.4440950155258179e-01</leafValues></_>
        <_>
          <internalNodes>
            0 -1 25 -8.3950482308864594e-02</internalNodes>
          <leafValues>
            7.8198808431625366e-01 -4.4924890995025635e-01</leafValues></_>
        <_>
          <internalNodes>
            0 -1 10 4.6076990664005280e-02</internalNodes>
          <leafValues>
            -5.2662098407745361e-01 6.7697262763977051e-01</leafValues></_></weakClassifiers></_>
    <!-- stage 10 -->
    <_>
      <maxWeakCount>5</maxWeakCount>
      <stageThreshold>-1.0462031364440918e+00</stageThreshold>
      <weakClassifiers>
        <_>
          <internalNodes>
            0 -1 34 -2.9096338897943497e-02</internalNodes>
          <leafValues>
            5.9302324056625366e-01 -7.9292929172515869e-01</leafValues></_>
        <_>
          <internalNodes>
            0 -1 37 -7.5937062501907349e-02</internalNodes>
          <leafValues>
            4.5662903785705566e-01 -8.3432233333587646e-01</leafValues></_>
        <_>
          <internalNodes>
            0 -1 17 -2.3418232798576355e-02</internalNodes>
          <leafValues>
            7.4135226011276245e-01 -4.7780612111091614e-01</leafValues></_>
        <_>
          <internalNodes>
            0 -1 30 1.2543557211756706e-02</internalNodes>
          <leafValues>
            4.0608090162277222e-01 -9.2198741436004639e-01</leafValues></_>
        <_>
          <internalNodes>
            0 -1 0 2.0322453230619431e-02</internalNodes>
          <leafValues>
            -6.2426888942718506e-01 4.9977210164070129e-01</leafValues></_></weakClassifiers></_>
    <!-- stage 11 -->
    <_>
      <maxWeakCount>3</maxWeakCount>
      <stageThreshold>8.2423843443393707e-02</stageThreshold>
      <weakClassifiers>
        <_>
          <internalNodes>
            0 -1 26 1.1614478193223476e-02</internalNodes>
          <leafValues>
            -7.3214286565780640e-01 6.3194441795349121e-01</leafValues></_>
        <_>
          <internalNodes>
            0 -1 29 -3.3906981348991394e-02</internalNodes>
          <leafValues>
            -9.3123054504394531e-01 4.0901568531990051e-01</leafValues></_>
        <_>
          <internalNodes>
            0 -1 23 1.4051504433155060e-02</internalNodes>
          <leafValues>
            4.0555101633071899e-01 -9.0842175483703613e-01</leafValues></_></weakClassifiers></_>
    <!-- stage 12 -->
    <_>
      <maxWeakCount>5</maxWeakCount>
      <stageThreshold>-5.4395723342895508e-01</stageThreshold>
      <weakClassifiers>
        <_>
          <internalNodes>
            0 -1 14 -9.5864823088049889e-03</internalNodes>
          <leafValues>
            6.3511186838150024e-01 -7.7168947458267212e-01</leafValues></_>
        <_>
          <internalNodes>
            0 -1 42 -6.8284804001450539e-04</internalNodes>
          <leafValues>
            8.0391812324523926e-01 -5.3169441223144531e-01</leafValues></_>
        <_>
          <internalNodes>
            0 -1 1 4.2322855442762375e-02</internalNodes>
          <leafValues>
            -4.9340230226516724e-01 7.8346943855285645e-01</leafValues></_>
        <_>
          <internalNodes>
            0 -1 38 5.4056989029049873e-03</internalNodes>
          <leafValues>
            -5.3048050403594971e-01 6.8737447261810303e-01</leafValues></_>
        <_>
          <internalNodes>
            0 -1 15 -4.6959020197391510e-02</internalNodes>
          <leafValues>
            -7.5930839776992798e-01 5.0643777847290039e-01</leafValues></_></weakClassifiers></_></stages>
  <features>
    <_>
      <rects>
        <_>
          1 6 10 10 -1.</_>
        <_>
          1 6 5 5 2.</_>
        <_>
          6 11 5 5 2.</_></rects>
      <tilted>0</tilted></_>
    <_>
      <rects>
        <_>
          2 4 8 16 -1.</_>
        <_>
          2 4 4 8 2.</_>
        <_>
          6 12 4 8 2.</_></rects>
      <tilted>0</tilted></_>
    <_>
      <rects>
        <_>
          2 4 10 12 -1.</_>
        <_>
          2 4 5 6 2.</_>
        <_>
          7 10 5 6 2.</_></rects>
      <tilted>0</tilted></_>
    <_>
      <rects>
        <_>
          2 4 20 6 -1.</_>
        <_>
          2 4 10 3 2.</_>
        <_>
          12 7 10 3 2.</_></rects>
      <tilted>0</tilted></_>
    <_>
      <rects>
        <_>
          3 0 8 20 -1.</_>
        <_>
          3 0 4 10 2.</_>
        <_>
          7 10 4 10 2.</_></rects>
      <tilted>0</tilted></_>
    <_>
      <rects>
        <_>
          3 8 10 19 -1.</_>
        <_>
          8 8 5 19 2.</_></rects>
      <tilted>0</tilted></_>
    <_>
      <rects>
        <_>
          4 9 29 14 -1.</_>
        <_>
          4 16 29 7 2.</_></rects>
      <tilted>0</tilted></_>
    <_>
      <rects>
        <_>
          4 13 6 10 -1.</_>
        <_>
          7 13 3 10 2.</_></rects>
      <tilted>0</tilted></_>
    <_>
      <rects>
        <_>
          4 25 30 2 -1.</_>
        <_>
          14 25 10 2 2.</_></rects>
      <tilted>0</tilted></_>
    <_>
      <rects>
        <_>
          5 8 27 2 -1.</_>
        <_>
          14 8 9 2 2.</_></rects>
      <tilted>0</tilted></_>
    <_>
      <rects>
        <_>
          5 11 6 13 -1.</_>
        <_>
          8 11 3 13 2.</_></rects>
      <tilted>0</tilted></_>
    <_>
      <rects>
        <_>
          6 6 18 23 -1.</_>
        <_>
          15 6 9 23 2.</_></rects>
      <tilted>0</tilted></_>
    <_>
      <rects>
        <_>
          6 18 14 10 -1.</_>
        <_>
          6 18 7 5 2.</_>
        <_>
          13 23 7 5 2.</_></rects>
      <tilted>0</tilted></_>
    <_>
      <rects>
        <_>
          7 4 16 24 -1.</_>
        <_>
          7 16 16 12 2.</_></rects>
      <tilted>0</tilted></_>
    <_>
      <rects>
        <_>
          7 9 19 12 -1.</_>
        <_>
          7 15 19 6 2.</_></rects>
      <tilted>0</tilted></_>
    <_>
      <rects>
        <_>
          7 26 12 6 -1.</_>
        <_>
          11 26 4 6 2.</_></rects>
      <tilted>0</tilted></_>
    <_>
      <rects>
        <_>
          7 26 22 2 -1.</_>
        <_>
          7 27 22 1 2.</_></rects>
      <tilted>0</tilted></_>
    <_>
      <rects>
        <_>
          8 1 21 6 -1.</_>
        <_>
          8 4 21 3 2.</_></rects>
      <tilted>0</tilted></_>
    <_>
      <rects>
        <_>
          8 6 4 14 -1.</_>
        <_>
          8 6 2 7 2.</_>
        <_>
          10 13 2 7 2.</_></rects>
      <tilted>0</tilted></_>
    <_>
      <rects>
        <_>
          8 6 8 14 -1.</_>
        <_>
          8 6 4 7 2.</_>
        <_>
          12 13 4 7 2.</_></rects>
      <tilted>0</tilted></_>
    <_>
      <rects>
        <_>
          8 16 4 4 -1.</_>
        <_>
          10 16 2 4 2.</_></rects>
      <tilted>0</tilted></_>
    <_>
      <rects>
        <_>
          8 16 4 14 -1.</_>
        <_>
          8 16 2 7 2.</_>
        <_>
          10 23 2 7 2.</_></rects>
      <tilted>0</tilted></_>
    <_>
      <rects>
        <_>
          8 16 8 14 -1.</_>
        <_>
          8 16 4 7 2.</_>
        <_>
          12 23 4 7 2.</_></rects>
      <tilted>0</tilted></_>
    <_>
      <rects>
        <_>
          9 10 18 19 -1.</_>
        <_>
          18 10 9 19 2.</_></rects>
      <tilted>0</tilted></_>
    <_>
      <rects>
        <_>
          9 23 17 8 -1.</_>
        <_>
          9 27 17 4 2.</_></rects>
      <tilted>0</tilted></_>
    <_>
      <rects>
        <_>
          9 24 18 8 -1.</_>
        <_>
          9 28 18 4 2.</_></rects>
      <tilted>0</tilted></_>
    <_>
      <rects>
        <_>
          10 4 19 24 -1.</_>
        <_>
          10 16 19 12 2.</_></rects>
      <tilted>0</tilted></_>
    <_>
      <rects>
        <_>
          11 5 16 6 -1.</_>
        <_>
          11 8 16 3 2.</_></rects>
      <tilted>0</tilted></_>
    <_>
      <rects>
        <_>
          11 22 15 12 -1.</_>
        <_>
          11 28 15 6 2.</_></rects>
      <tilted>0</tilted></_>
    <_>
      <rects>
        <_>
          12 13 16 17 -1.</_>
        <_>
          20 13 8 17 2.</_></rects>
      <tilted>0</tilted></_>
    <_>
      <rects>
        <_>
          13 6 9 26 -1.</_>
        <_>
          13 19 9 13 2.</_></rects>
      <tilted>0</tilted></_>
    <_>
      <rects>
        <_>
          13 25 4 5 -1.</_>
        <_>
          15 25 2 5 2.</_></rects>
      <tilted>0</tilted></_>
    <_>
      <rects>
        <_>
          14 25 18 2 -1.</_>
        <_>
          23 25 9 2 2.</_></rects>
      <tilted>0</tilted></_>
    <_>
      <rects>
        <_>
          15 8 14 8 -1.</_>
        <_>
          15 8 7 4 2.</_>
        <_>
          22 12 7 4 2.</_></rects>
      <tilted>0</tilted></_>
    <_>
      <rects>
        <_>
          15 17 14 12 -1.</_>
        <_>
          15 17 7 6 2.</_>
        <_>
          22 23 7 6 2.</_></rects>
      <tilted>0</tilted></_>
    <_>
      <rects>
        <_>
          16 3 4 10 -1.</_>
        <_>
          16 8 4 5 2.</_></rects>
      <tilted>0</tilted></_>
    <_>
      <rects>
        <_>
          17 6 10 6 -1.</_>
        <_>
          22 6 5 6 2.</_></rects>
      <tilted>0</tilted></_>
    <_>
      <rects>
        <_>
          17 8 16 20 -1.</_>
        <_>
          25 8 8 20 2.</_></rects>
      <tilted>0</tilted></_>
    <_>
      <rects>
        <_>
          20 9 8 4 -1.</_>
        <_>
          20 9 4 2 2.</_>
        <_>
          24 11 4 2 2.</_></rects>
      <tilted>0</tilted></_>
    <_>
      <rects>
        <_>
          22 0 12 18 -1.</_>
        <_>
          22 0 6 9 2.</_>
        <_>
          28 9 6 9 2.</_></rects>
      <tilted>0</tilted></_>
    <_>
      <rects>
        <_>
          22 4 8 8 -1.</_>
        <_>
          22 4 4 4 2.</_>
        <_>
          26 8 4 4 2.</_></rects>
      <tilted>0</tilted></_>
    <_>
      <rects>
        <_>
          24 7 4 14 -1.</_>
        <_>
          24 7 2 7 2.</_>
        <_>
          26 14 2 7 2.</_></rects>
      <tilted>0</tilted></_>
    <_>
      <rects>
        <_>
          24 21 2 4 -1.</_>
        <_>
          24 21 1 2 2.</_>
        <_>
          25 23 1 2 2.</_></rects>
      <tilted>0</tilted></_>
    <_>
      <rects>
        <_>
          25 14 8 9 -1.</_>
        <_>
          29 14 4 9 2.</_></rects>
      <tilted>0</tilted></_>
    <_>
      <rects>
        <_>
          26 8 4 18 -1.</_>
        <_>
          28 8 2 18 2.</_></rects>
      <tilted>0</tilted></_></features></cascade>
</opencv_storage>
