<?xml version="1.0"?>
<opencv_storage>
<cascade>
  <stageType>BOOST</stageType>
  <featureType>LBP</featureType>
  <height>34</height>
  <width>34</width>
  <stageParams>
    <boostType>GAB</boostType>
    <minHitRate>9.7500002384185791e-01</minHitRate>
    <maxFalseAlarm>5.0000000000000000e-01</maxFalseAlarm>
    <weightTrimRate>9.4999998807907104e-01</weightTrimRate>
    <maxDepth>1</maxDepth>
    <maxWeakCount>100</maxWeakCount></stageParams>
  <featureParams>
    <maxCatCount>256</maxCatCount>
    <featSize>1</featSize></featureParams>
  <stageNum>16</stageNum>
  <stages>
    <!-- stage 0 -->
    <_>
      <maxWeakCount>1</maxWeakCount>
      <stageThreshold>8.9942526817321777e-01</stageThreshold>
      <weakClassifiers>
        <_>
          <internalNodes>
            0 -1 18 -1 -1083395 -1 -49217 -1 -1073742001 -1073746177
            1069484991</internalNodes>
          <leafValues>
            -8.7772923707962036e-01 8.9942526817321777e-01</leafValues></_></weakClassifiers></_>
    <!-- stage 1 -->
    <_>
      <maxWeakCount>2</maxWeakCount>
      <stageThreshold>9.6243761479854584e-02</stageThreshold>
      <weakClassifiers>
        <_>
          <internalNodes>
            0 -1 14 -286347522 -589826 -805502977 -983044 1288482814
            -268505089 -941621761 -4097</internalNodes>
          <leafValues>
            -7.2245764732360840e-01 8.6429607868194580e-01</leafValues></_>
        <_>
          <internalNodes>
            0 -1 7 -126419201 -868353 -120520705 -31391757 -193789953
            -9012225 -196609 -9240705</internalNodes>
          <leafValues>
            -6.7342513799667358e-01 8.1870138645172119e-01</leafValues></_></weakClassifiers></_>
    <!-- stage 2 -->
    <_>
      <maxWeakCount>2</maxWeakCount>
      <stageThreshold>3.6480601876974106e-02</stageThreshold>
      <weakClassifiers>
        <_>
          <internalNodes>
            0 -1 17 -16863560 -53701 -81921 -4411393 -53505 -16386
            -114689 -1073766721</internalNodes>
          <leafValues>
            -6.9026547670364380e-01 8.3118742704391479e-01</leafValues></_>
        <_>
          <internalNodes>
            0 -1 4 -935858977 -99102383 -803865929 -253449963 1092719595
            -1085568886 -243031365 -225976145</internalNodes>
          <leafValues>
            -7.5650835037231445e-01 7.2674608230590820e-01</leafValues></_></weakClassifiers></_>
    <!-- stage 3 -->
    <_>
      <maxWeakCount>2</maxWeakCount>
      <stageThreshold>1.4812895655632019e-01</stageThreshold>
      <weakClassifiers>
        <_>
          <internalNodes>
            0 -1 22 -76025037 2012741503 -526477 -524289 -134744073
            -33554459 -713558571 -707264521</internalNodes>
          <leafValues>
            -6.0950410366058350e-01 8.3821374177932739e-01</leafValues></_>
        <_>
          <internalNodes>
            0 -1 29 -75498626 -545292449 989772412 1937244031 -8496052
            -28377268 -390267652 -131121</internalNodes>
          <leafValues>
            -6.4526665210723877e-01 7.5763309001922607e-01</leafValues></_></weakClassifiers></_>
    <!-- stage 4 -->
    <_>
      <maxWeakCount>2</maxWeakCount>
      <stageThreshold>4.4626604765653610e-02</stageThreshold>
      <weakClassifiers>
        <_>
          <internalNodes>
            0 -1 21 -583798480 -651 -262659 -131075 -33826339 -3
            1576879581 -33554979</internalNodes>
          <leafValues>
            -6.5707433223724365e-01 7.8436845541000366e-01</leafValues></_>
        <_>
          <internalNodes>
            0 -1 5 -859111425 1875644465 184924575 -283422421 310751
            -1350025214 226610075 -4201845</internalNodes>
          <leafValues>
            -6.7626017332077026e-01 7.0170092582702637e-01</leafValues></_></weakClassifiers></_>
    <!-- stage 5 -->
    <_>
      <maxWeakCount>2</maxWeakCount>
      <stageThreshold>1.7113713920116425e-01</stageThreshold>
      <weakClassifiers>
        <_>
          <internalNodes>
            0 -1 10 -16789937 2147483519 -83898642 -251658498 1601654615
            2004309879 -8960185 -134744201</internalNodes>
          <leafValues>
            -5.5282050371170044e-01 8.2165139913558960e-01</leafValues></_>
        <_>
          <internalNodes>
            0 -1 11 -577185670 -304130 1873337210 1597005823 -571421442
            1568627967 -8397313 -541106177</internalNodes>
          <leafValues>
            -6.3216072320938110e-01 7.2395765781402588e-01</leafValues></_></weakClassifiers></_>
    <!-- stage 6 -->
    <_>
      <maxWeakCount>3</maxWeakCount>
      <stageThreshold>-5.1286071538925171e-01</stageThreshold>
      <weakClassifiers>
        <_>
          <internalNodes>
            0 -1 19 -17563913 -655369 -16891907 -60358668 -1 -16842773
            -33557004 -50792460</internalNodes>
          <leafValues>
            -6.8765741586685181e-01 7.7288371324539185e-01</leafValues></_>
        <_>
          <internalNodes>
            0 -1 2 -1028201729 -8442113 -530587393 1962274815 -620804609
            -805444097 -234885889 -8925185</internalNodes>
          <leafValues>
            -6.1490207910537720e-01 7.1192502975463867e-01</leafValues></_>
        <_>
          <internalNodes>
            0 -1 8 1232000846 -410329080 -1068829409 -104468464
            -1966697957 -930446336 144285951 -69218037</internalNodes>
          <leafValues>
            -6.7084234952926636e-01 6.5389007329940796e-01</leafValues></_></weakClassifiers></_>
    <!-- stage 7 -->
    <_>
      <maxWeakCount>2</maxWeakCount>
      <stageThreshold>1.6518659889698029e-01</stageThreshold>
      <weakClassifiers>
        <_>
          <internalNodes>
            0 -1 3 -135273778 -793904933 -1333886738 -1325964562
            1600078415 -536914722 1949811951 -273713</internalNodes>
          <leafValues>
            -4.5249295234680176e-01 8.2707619667053223e-01</leafValues></_>
        <_>
          <internalNodes>
            0 -1 23 -39893948 2099192341 1359250749 1498873975
            -923223560 -1089600893 -733437777 -114435185</internalNodes>
          <leafValues>
            -6.6188961267471313e-01 6.8513399362564087e-01</leafValues></_></weakClassifiers></_>
    <!-- stage 8 -->
    <_>
      <maxWeakCount>3</maxWeakCount>
      <stageThreshold>-5.7009339332580566e-01</stageThreshold>
      <weakClassifiers>
        <_>
          <internalNodes>
            0 -1 15 1257918206 -537200641 -96804865 2131804159 143314687
            -823230477 -805576705 -8193</internalNodes>
          <leafValues>
            -7.0611184835433960e-01 7.6526784896850586e-01</leafValues></_>
        <_>
          <internalNodes>
            0 -1 6 -402662949 -1536667298 286343633 -2729958 52599227
            167905673 1261052315 -3409253</internalNodes>
          <leafValues>
            -7.5663638114929199e-01 6.5645819902420044e-01</leafValues></_>
        <_>
          <internalNodes>
            0 -1 33 -683936845 -557842753 808579891 -205523981
            -132121685 -2001731685 634630609 -1344274533</internalNodes>
          <leafValues>
            -5.7872486114501953e-01 7.9770535230636597e-01</leafValues></_></weakClassifiers></_>
    <!-- stage 9 -->
    <_>
      <maxWeakCount>2</maxWeakCount>
      <stageThreshold>1.6059668362140656e-01</stageThreshold>
      <weakClassifiers>
        <_>
          <internalNodes>
            0 -1 16 -1432698881 -1073745921 -1346621441 536821759
            974692351 213909503 800993279 251629055</internalNodes>
          <leafValues>
            -5.6615018844604492e-01 7.6022368669509888e-01</leafValues></_>
        <_>
          <internalNodes>
            0 -1 31 -243543277 1530395439 -235718799 -9079855
            -2082866502 -1424180297 -772558575 -38011469</internalNodes>
          <leafValues>
            -5.5507469177246094e-01 7.2674685716629028e-01</leafValues></_></weakClassifiers></_>
    <!-- stage 10 -->
    <_>
      <maxWeakCount>3</maxWeakCount>
      <stageThreshold>-5.2890896797180176e-01</stageThreshold>
      <weakClassifiers>
        <_>
          <internalNodes>
            0 -1 32 -9438400 -270762235 -8401057 -52453619 -1309087096
            -85214520 570487434 856423403</internalNodes>
          <leafValues>
            -4.5766130089759827e-01 7.9542100429534912e-01</leafValues></_>
        <_>
          <internalNodes>
            0 -1 12 -187511602 -11333303 1380505854 810734361 2141274694
            -79490657 -841189301 -42471897</internalNodes>
          <leafValues>
            -7.1514660120010376e-01 6.2777256965637207e-01</leafValues></_>
        <_>
          <internalNodes>
            0 -1 30 1528288688 1129038491 1074299089 998756485
            -670446694 -1174241126 -930577955 -1080046901</internalNodes>
          <leafValues>
            -6.9902020692825317e-01 6.0673117637634277e-01</leafValues></_></weakClassifiers></_>
    <!-- stage 11 -->
    <_>
      <maxWeakCount>3</maxWeakCount>
      <stageThreshold>-3.7936174869537354e-01</stageThreshold>
      <weakClassifiers>
        <_>
          <internalNodes>
            0 -1 25 -5120515 -3 -3 -515 -4203011 -515 -905970199
            -241187520</internalNodes>
          <leafValues>
            -4.2884430289268494e-01 8.1002640724182129e-01</leafValues></_>
        <_>
          <internalNodes>
            0 -1 27 -323599276 1532109321 -1987149605 925780527
            -929522516 -87537145 -387129700 -102170950</internalNodes>
          <leafValues>
            -6.9829237461090088e-01 6.5355914831161499e-01</leafValues></_>
        <_>
          <internalNodes>
            0 -1 9 -403768065 -2018619422 1174402171 -65872 -2047934977
            -806354961 1434449407 -537922059</internalNodes>
          <leafValues>
            -6.0407662391662598e-01 6.6158026456832886e-01</leafValues></_></weakClassifiers></_>
    <!-- stage 12 -->
    <_>
      <maxWeakCount>3</maxWeakCount>
      <stageThreshold>-5.3784388303756714e-01</stageThreshold>
      <weakClassifiers>
        <_>
          <internalNodes>
            0 -1 35 -143132694 -49305 -1426592134 15859519 2135780876
            2135392077 -25231762 846397295</internalNodes>
          <leafValues>
            -6.8465906381607056e-01 7.2830438613891602e-01</leafValues></_>
        <_>
          <internalNodes>
            0 -1 13 -736955937 -145620709 1024610647 2063655931
            -1558474337 -11845626 1199288955 -78455157</internalNodes>
          <leafValues>
            -6.5055710077285767e-01 6.7560428380966187e-01</leafValues></_>
        <_>
          <internalNodes>
            0 -1 26 -727820971 2132237383 -1970898613 -577040505
            -1946104853 -1080319990 -938546130 -39191638</internalNodes>
          <leafValues>
            -6.1559122800827026e-01 6.5747344493865967e-01</leafValues></_></weakClassifiers></_>
    <!-- stage 13 -->
    <_>
      <maxWeakCount>3</maxWeakCount>
      <stageThreshold>-5.6731623411178589e-01</stageThreshold>
      <weakClassifiers>
        <_>
          <internalNodes>
            0 -1 24 2067772464 -545783945 297106925 2139094911
            -570433283 -9 -572654115 -1654652995</internalNodes>
          <leafValues>
            -6.4953887462615967e-01 7.4566471576690674e-01</leafValues></_>
        <_>
          <internalNodes>
            0 -1 0 -178841121 -865824358 -1861152489 -37617656
            -1845456641 -1061025623 -2147444709 -2915302</internalNodes>
          <leafValues>
            -6.2355422973632812e-01 6.7753201723098755e-01</leafValues></_>
        <_>
          <internalNodes>
            0 -1 34 -665341095 -620675053 16777555 1405322523 -202645492
            956981320 -905906068 -26022273</internalNodes>
          <leafValues>
            -6.8942672014236450e-01 5.9126132726669312e-01</leafValues></_></weakClassifiers></_>
    <!-- stage 14 -->
    <_>
      <maxWeakCount>2</maxWeakCount>
      <stageThreshold>2.0637595653533936e-01</stageThreshold>
      <weakClassifiers>
        <_>
          <internalNodes>
            0 -1 20 -11069679 1438078225 -178243 -353358476 -57929
            -1074176077 2139041187 496047509</internalNodes>
          <leafValues>
            -5.6167399883270264e-01 7.9154729843139648e-01</leafValues></_>
        <_>
          <internalNodes>
            0 -1 1 -776998206 16106120 670846477 2036321295 351662266
            -797556654 905432525 -255330897</internalNodes>
          <leafValues>
            -5.7403045892715454e-01 7.6804995536804199e-01</leafValues></_></weakClassifiers></_>
    <!-- stage 15 -->
    <_>
      <maxWeakCount>2</maxWeakCount>
      <stageThreshold>2.2624348104000092e-01</stageThreshold>
      <weakClassifiers>
        <_>
          <internalNodes>
            0 -1 28 -27533800 -42074787 -8454273 -14680227 2062286504
            -95879480 675066584 -2096234693</internalNodes>
          <leafValues>
            -5.7455682754516602e-01 8.2123315334320068e-01</leafValues></_>
        <_>
          <internalNodes>
            0 -1 36 1052767747 -2029078613 -1442895904 -270008329
            74304731 1160605404 368407810 -2033322121</internalNodes>
          <leafValues>
            -5.9498965740203857e-01 8.1682872772216797e-01</leafValues></_></weakClassifiers></_></stages>
  <features>
    <_>
      <rect>
        5 10 4 1</rect></_>
    <_>
      <rect>
        5 11 2 4</rect></_>
    <_>
      <rect>
        5 20 4 2</rect></_>
    <_>
      <rect>
        6 15 2 3</rect></_>
    <_>
      <rect>
        6 23 4 1</rect></_>
    <_>
      <rect>
        7 7 4 2</rect></_>
    <_>
      <rect>
        7 9 4 1</rect></_>
    <_>
      <rect>
        7 22 4 2</rect></_>
    <_>
      <rect>
        8 9 2 2</rect></_>
    <_>
      <rect>
        8 11 1 1</rect></_>
    <_>
      <rect>
        8 18 1 1</rect></_>
    <_>
      <rect>
        8 18 2 3</rect></_>
    <_>
      <rect>
        8 20 1 1</rect></_>
    <_>
      <rect>
        8 23 4 2</rect></_>
    <_>
      <rect>
        9 8 4 2</rect></_>
    <_>
      <rect>
        9 21 3 2</rect></_>
    <_>
      <rect>
        10 5 3 3</rect></_>
    <_>
      <rect>
        12 7 4 2</rect></_>
    <_>
      <rect>
        15 9 2 6</rect></_>
    <_>
      <rect>
        15 11 2 1</rect></_>
    <_>
      <rect>
        17 3 3 4</rect></_>
    <_>
      <rect>
        17 22 3 2</rect></_>
    <_>
      <rect>
        17 23 4 1</rect></_>
    <_>
      <rect>
        18 8 2 1</rect></_>
    <_>
      <rect>
        18 21 3 2</rect></_>
    <_>
      <rect>
        18 23 2 2</rect></_>
    <_>
      <rect>
        20 8 1 1</rect></_>
    <_>
      <rect>
        21 9 1 1</rect></_>
    <_>
      <rect>
        21 9 2 2</rect></_>
    <_>
      <rect>
        21 10 2 1</rect></_>
    <_>
      <rect>
        21 20 2 2</rect></_>
    <_>
      <rect>
        21 20 3 2</rect></_>
    <_>
      <rect>
        22 9 2 3</rect></_>
    <_>
      <rect>
        23 19 2 2</rect></_>
    <_>
      <rect>
        24 11 1 1</rect></_>
    <_>
      <rect>
        25 13 1 1</rect></_>
    <_>
      <rect>
        25 20 1 1</rect></_></features></cascade>
</opencv_storage>
