<?xml version="1.0"?>
<opencv_storage>
<myhaar type_id="opencv-haar-classifier">
  <size>
    24 24</size>
  <stages>
    <_>
      <trees>
        <_>
          <_>
            <feature>
              <rects>
                <_>
                  2 14 18 9 -1.</_>
                <_>
                  8 17 6 3 9.</_></rects>
              <tilted>0</tilted></feature>
            <threshold>0.2575012147426605</threshold>
            <left_val>-1.</left_val>
            <right_val>0.9323673248291016</right_val></_></_></trees>
      <stage_threshold>0.9323673248291016</stage_threshold>
      <parent>-1</parent>
      <next>-1</next></_>
    <_>
      <trees>
        <_>
          <_>
            <feature>
              <rects>
                <_>
                  10 1 1 9 -1.</_>
                <_>
                  10 4 1 3 3.</_></rects>
              <tilted>0</tilted></feature>
            <threshold>8.3062257617712021e-003</threshold>
            <left_val>-0.9514327049255371</left_val>
            <right_val>0.9598237276077271</right_val></_></_>
        <_>
          <_>
            <feature>
              <rects>
                <_>
                  15 8 8 8 -1.</_>
                <_>
                  17 8 4 8 2.</_></rects>
              <tilted>0</tilted></feature>
            <threshold>0.0146371899172664</threshold>
            <left_val>-0.7969908118247986</left_val>
            <right_val>0.7265086174011231</right_val></_></_></trees>
      <stage_threshold>-0.2249241024255753</stage_threshold>
      <parent>0</parent>
      <next>-1</next></_>
    <_>
      <trees>
        <_>
          <_>
            <feature>
              <rects>
                <_>
                  1 11 12 1 -1.</_>
                <_>
                  5 15 4 1 3.</_></rects>
              <tilted>1</tilted></feature>
            <threshold>4.9325958825647831e-003</threshold>
            <left_val>-1.</left_val>
            <right_val>0.9900503158569336</right_val></_></_>
        <_>
          <_>
            <feature>
              <rects>
                <_>
                  3 2 21 18 -1.</_>
                <_>
                  10 2 7 18 3.</_></rects>
              <tilted>0</tilted></feature>
            <threshold>0.0106473900377750</threshold>
            <left_val>-1.</left_val>
            <right_val>1.</right_val></_></_>
        <_>
          <_>
            <feature>
              <rects>
                <_>
                  0 0 2 1 -1.</_>
                <_>
                  1 0 1 1 2.</_></rects>
              <tilted>0</tilted></feature>
            <threshold>0.</threshold>
            <left_val>0.</left_val>
            <right_val>-1.</right_val></_></_>
        <_>
          <_>
            <feature>
              <rects>
                <_>
                  18 0 6 16 -1.</_>
                <_>
                  21 0 3 8 2.</_>
                <_>
                  18 8 3 8 2.</_></rects>
              <tilted>0</tilted></feature>
            <threshold>1.5827560564503074e-003</threshold>
            <left_val>-0.9860677719116211</left_val>
            <right_val>1.</right_val></_></_>
        <_>
          <_>
            <feature>
              <rects>
                <_>
                  0 0 2 1 -1.</_>
                <_>
                  1 0 1 1 2.</_></rects>
              <tilted>0</tilted></feature>
            <threshold>0.</threshold>
            <left_val>0.</left_val>
            <right_val>-1.</right_val></_></_>
        <_>
          <_>
            <feature>
              <rects>
                <_>
                  18 0 6 16 -1.</_>
                <_>
                  21 0 3 8 2.</_>
                <_>
                  18 8 3 8 2.</_></rects>
              <tilted>0</tilted></feature>
            <threshold>1.5827560564503074e-003</threshold>
            <left_val>-0.9027377963066101</left_val>
            <right_val>0.8823717236518860</right_val></_></_>
        <_>
          <_>
            <feature>
              <rects>
                <_>
                  0 0 4 2 -1.</_>
                <_>
                  1 0 2 2 2.</_></rects>
              <tilted>0</tilted></feature>
            <threshold>2.5279980036430061e-005</threshold>
            <left_val>-1.</left_val>
            <right_val>1.</right_val></_></_>
        <_>
          <_>
            <feature>
              <rects>
                <_>
                  22 0 2 1 -1.</_>
                <_>
                  22 0 1 1 2.</_></rects>
              <tilted>0</tilted></feature>
            <threshold>0.</threshold>
            <left_val>0.</left_val>
            <right_val>-1.</right_val></_></_>
        <_>
          <_>
            <feature>
              <rects>
                <_>
                  0 0 16 6 -1.</_>
                <_>
                  0 0 8 3 2.</_>
                <_>
                  8 3 8 3 2.</_></rects>
              <tilted>0</tilted></feature>
            <threshold>5.4649361409246922e-003</threshold>
            <left_val>-1.</left_val>
            <right_val>0.9999992847442627</right_val></_></_>
        <_>
          <_>
            <feature>
              <rects>
                <_>
                  22 0 2 1 -1.</_>
                <_>
                  22 0 1 1 2.</_></rects>
              <tilted>0</tilted></feature>
            <threshold>0.</threshold>
            <left_val>0.</left_val>
            <right_val>-1.</right_val></_></_>
        <_>
          <_>
            <feature>
              <rects>
                <_>
                  0 0 14 6 -1.</_>
                <_>
                  0 2 14 2 3.</_></rects>
              <tilted>0</tilted></feature>
            <threshold>-0.0122896302491426</threshold>
            <left_val>1.</left_val>
            <right_val>-1.</right_val></_></_>
        <_>
          <_>
            <feature>
              <rects>
                <_>
                  22 0 2 8 -1.</_>
                <_>
                  23 0 1 4 2.</_>
                <_>
                  22 4 1 4 2.</_></rects>
              <tilted>0</tilted></feature>
            <threshold>-1.7443189863115549e-003</threshold>
            <left_val>1.</left_val>
            <right_val>-0.9494171142578125</right_val></_></_>
        <_>
          <_>
            <feature>
              <rects>
                <_>
                  0 0 20 6 -1.</_>
                <_>
                  0 0 10 3 2.</_>
                <_>
                  10 3 10 3 2.</_></rects>
              <tilted>0</tilted></feature>
            <threshold>0.0171880703419447</threshold>
            <left_val>-1.</left_val>
            <right_val>0.9999998211860657</right_val></_></_>
        <_>
          <_>
            <feature>
              <rects>
                <_>
                  23 0 1 3 -1.</_>
                <_>
                  23 1 1 1 3.</_></rects>
              <tilted>0</tilted></feature>
            <threshold>-1.5703839380876161e-005</threshold>
            <left_val>1.</left_val>
            <right_val>-0.9999997019767761</right_val></_></_>
        <_>
          <_>
            <feature>
              <rects>
                <_>
                  0 1 22 1 -1.</_>
                <_>
                  11 1 11 1 2.</_></rects>
              <tilted>0</tilted></feature>
            <threshold>-7.7403528848662972e-005</threshold>
            <left_val>1.</left_val>
            <right_val>-1.</right_val></_></_></trees>
      <stage_threshold>0.9230036735534668</stage_threshold>
      <parent>1</parent>
      <next>-1</next></_>
    <_>
      <trees>
        <_>
          <_>
            <feature>
              <rects>
                <_>
                  0 10 6 14 -1.</_>
                <_>
                  0 10 3 7 2.</_>
                <_>
                  3 17 3 7 2.</_></rects>
              <tilted>0</tilted></feature>
            <threshold>-0.0284638106822968</threshold>
            <left_val>0.8097447752952576</left_val>
            <right_val>-0.8971725702285767</right_val></_></_>
        <_>
          <_>
            <feature>
              <rects>
                <_>
                  6 0 12 12 -1.</_>
                <_>
                  6 4 12 4 3.</_></rects>
              <tilted>0</tilted></feature>
            <threshold>0.1380518972873688</threshold>
            <left_val>-0.8541669249534607</left_val>
            <right_val>0.8215717077255249</right_val></_></_></trees>
      <stage_threshold>-0.0756008625030518</stage_threshold>
      <parent>2</parent>
      <next>-1</next></_>
    <_>
      <trees>
        <_>
          <_>
            <feature>
              <rects>
                <_>
                  8 0 3 7 -1.</_>
                <_>
                  9 1 1 7 3.</_></rects>
              <tilted>1</tilted></feature>
            <threshold>-0.0213082693517208</threshold>
            <left_val>0.9634091854095459</left_val>
            <right_val>-0.6693192124366760</right_val></_></_>
        <_>
          <_>
            <feature>
              <rects>
                <_>
                  14 10 8 10 -1.</_>
                <_>
                  18 10 4 5 2.</_>
                <_>
                  14 15 4 5 2.</_></rects>
              <tilted>0</tilted></feature>
            <threshold>0.0298790000379086</threshold>
            <left_val>-0.2311471998691559</left_val>
            <right_val>0.6015127897262573</right_val></_></_>
        <_>
          <_>
            <feature>
              <rects>
                <_>
                  10 8 3 9 -1.</_>
                <_>
                  11 8 1 9 3.</_></rects>
              <tilted>0</tilted></feature>
            <threshold>6.9705978967249393e-003</threshold>
            <left_val>-0.7995597124099731</left_val>
            <right_val>0.8597121834754944</right_val></_></_></trees>
      <stage_threshold>-0.0407541990280151</stage_threshold>
      <parent>3</parent>
      <next>-1</next></_>
    <_>
      <trees>
        <_>
          <_>
            <feature>
              <rects>
                <_>
                  6 9 6 6 -1.</_>
                <_>
                  4 11 6 2 3.</_></rects>
              <tilted>1</tilted></feature>
            <threshold>0.0427578687667847</threshold>
            <left_val>-0.8448408842086792</left_val>
            <right_val>0.7539809942245483</right_val></_></_>
        <_>
          <_>
            <feature>
              <rects>
                <_>
                  6 19 12 4 -1.</_>
                <_>
                  6 21 12 2 2.</_></rects>
              <tilted>0</tilted></feature>
            <threshold>-0.0492250286042690</threshold>
            <left_val>0.7430068254470825</left_val>
            <right_val>-0.8542680740356445</right_val></_></_></trees>
      <stage_threshold>-0.1018342003226280</stage_threshold>
      <parent>4</parent>
      <next>-1</next></_></stages></myhaar>
</opencv_storage>
