<?xml version="1.0"?>
<opencv_storage>
<cascade>
  <stageType>BOOST</stageType>
  <featureType>LBP</featureType>
  <height>34</height>
  <width>34</width>
  <stageParams>
    <boostType>GAB</boostType>
    <minHitRate>9.7500002384185791e-01</minHitRate>
    <maxFalseAlarm>5.0000000000000000e-01</maxFalseAlarm>
    <weightTrimRate>9.4999998807907104e-01</weightTrimRate>
    <maxDepth>1</maxDepth>
    <maxWeakCount>100</maxWeakCount></stageParams>
  <featureParams>
    <maxCatCount>256</maxCatCount>
    <featSize>1</featSize></featureParams>
  <stageNum>17</stageNum>
  <stages>
    <!-- stage 0 -->
    <_>
      <maxWeakCount>1</maxWeakCount>
      <stageThreshold>9.1117477416992188e-01</stageThreshold>
      <weakClassifiers>
        <_>
          <internalNodes>
            0 -1 16 -2430294 -672169850 1090900063 -3174041 -360121413
            -1130641201 -926291205 -69</internalNodes>
          <leafValues>
            -9.2951542139053345e-01 9.1117477416992188e-01</leafValues></_></weakClassifiers></_>
    <!-- stage 1 -->
    <_>
      <maxWeakCount>2</maxWeakCount>
      <stageThreshold>-2.1566992625594139e-02</stageThreshold>
      <weakClassifiers>
        <_>
          <internalNodes>
            0 -1 10 -1052689 -271585297 -1 -1048577 -1710497809
            -806355007 -1 -1</internalNodes>
          <leafValues>
            -8.2940518856048584e-01 8.6828052997589111e-01</leafValues></_>
        <_>
          <internalNodes>
            0 -1 41 -3 -139907 -8235 -513 -33557028 -33587203 -33687556
            -1</internalNodes>
          <leafValues>
            -7.3537534475326538e-01 8.0783814191818237e-01</leafValues></_></weakClassifiers></_>
    <!-- stage 2 -->
    <_>
      <maxWeakCount>2</maxWeakCount>
      <stageThreshold>-1.8911035731434822e-02</stageThreshold>
      <weakClassifiers>
        <_>
          <internalNodes>
            0 -1 24 -1358954753 -1367347457 -16785409 -285212673
            260816895 -1342926849 1073741823 -1</internalNodes>
          <leafValues>
            -7.5874549150466919e-01 8.1121557950973511e-01</leafValues></_>
        <_>
          <internalNodes>
            0 -1 45 -5242889 -82052205 -2140847993 -1416919373
            -1901331083 -280490650 -1413625099 -11533</internalNodes>
          <leafValues>
            -7.0709604024887085e-01 7.3983442783355713e-01</leafValues></_></weakClassifiers></_>
    <!-- stage 3 -->
    <_>
      <maxWeakCount>2</maxWeakCount>
      <stageThreshold>7.6817199587821960e-02</stageThreshold>
      <weakClassifiers>
        <_>
          <internalNodes>
            0 -1 42 -8388737 -294673 -1 -83689481 1979915317 2030147586
            -129 -129</internalNodes>
          <leafValues>
            -6.1363637447357178e-01 7.9432624578475952e-01</leafValues></_>
        <_>
          <internalNodes>
            0 -1 12 -1 -822083841 -1 -1 2147483647 -1879048193 -67108865
            -1</internalNodes>
          <leafValues>
            -6.5314590930938721e-01 6.9045358896255493e-01</leafValues></_></weakClassifiers></_>
    <!-- stage 4 -->
    <_>
      <maxWeakCount>3</maxWeakCount>
      <stageThreshold>-5.1680147647857666e-01</stageThreshold>
      <weakClassifiers>
        <_>
          <internalNodes>
            0 -1 15 -1057284 -247529996 -515 -1507348 -16909569 -4194306
            -10241 -1048577</internalNodes>
          <leafValues>
            -5.9906214475631714e-01 7.7660697698593140e-01</leafValues></_>
        <_>
          <internalNodes>
            0 -1 19 -1383139373 -2067414039 285313431 -2244455 44274895
            -1918959488 -939521589 -1312625</internalNodes>
          <leafValues>
            -6.7448896169662476e-01 6.2556177377700806e-01</leafValues></_>
        <_>
          <internalNodes>
            0 -1 22 -472167433 1871730053 -1862265005 -83758059
            134280114 -1476317142 327373291 -141307501</internalNodes>
          <leafValues>
            -6.1891943216323853e-01 5.6423747539520264e-01</leafValues></_></weakClassifiers></_>
    <!-- stage 5 -->
    <_>
      <maxWeakCount>3</maxWeakCount>
      <stageThreshold>4.0355241298675537e-01</stageThreshold>
      <weakClassifiers>
        <_>
          <internalNodes>
            0 -1 43 -653528329 -1726938991 -2146920203 -1610022821
            -1146373519 -1442543613 -1433554863 -69234459</internalNodes>
          <leafValues>
            -7.5000000000000000e-01 7.1241831779479980e-01</leafValues></_>
        <_>
          <internalNodes>
            0 -1 20 -1154228739 -637809156 462329183 1293878415
            -1171030133 -483330126 1040878991 169541646</internalNodes>
          <leafValues>
            -5.7663196325302124e-01 6.8814510107040405e-01</leafValues></_>
        <_>
          <internalNodes>
            0 -1 27 -975444177 1628508929 -981388015 -1123987183
            -2105109379 229182497 25727931 -7622517</internalNodes>
          <leafValues>
            -7.3209613561630249e-01 4.6540734171867371e-01</leafValues></_></weakClassifiers></_>
    <!-- stage 6 -->
    <_>
      <maxWeakCount>4</maxWeakCount>
      <stageThreshold>6.7813210189342499e-02</stageThreshold>
      <weakClassifiers>
        <_>
          <internalNodes>
            0 -1 36 -1 -1 -4 -1 -155651 -170558083 -1510122020
            -572662275</internalNodes>
          <leafValues>
            -5.1045513153076172e-01 7.3259437084197998e-01</leafValues></_>
        <_>
          <internalNodes>
            0 -1 14 -470810657 -1494286344 -1052673 -285343748 502234999
            -973678593 -33554433 -335545123</internalNodes>
          <leafValues>
            -4.9990153312683105e-01 6.4029467105865479e-01</leafValues></_>
        <_>
          <internalNodes>
            0 -1 40 405803248 529535472 1106383985 -1726970607 480938142
            -1899867725 -1239746065 -23007871</internalNodes>
          <leafValues>
            -6.1378848552703857e-01 5.3154051303863525e-01</leafValues></_>
        <_>
          <internalNodes>
            0 -1 26 -272692353 -1413295009 1973015315 -239470845
            131838395 -1928814574 1126747537 -34905647</internalNodes>
          <leafValues>
            -5.7201689481735229e-01 5.5176210403442383e-01</leafValues></_></weakClassifiers></_>
    <!-- stage 7 -->
    <_>
      <maxWeakCount>3</maxWeakCount>
      <stageThreshold>-4.4639456272125244e-01</stageThreshold>
      <weakClassifiers>
        <_>
          <internalNodes>
            0 -1 46 -295563 2139051893 -225 2147185799 -164012
            2104981373 -545391236 -1</internalNodes>
          <leafValues>
            -5.5284553766250610e-01 7.1168130636215210e-01</leafValues></_>
        <_>
          <internalNodes>
            0 -1 31 -592382728 -589503280 766168187 -573242283 -23003398
            -122634635 -1919355393 -542380323</internalNodes>
          <leafValues>
            -4.6968546509742737e-01 6.6469633579254150e-01</leafValues></_>
        <_>
          <internalNodes>
            0 -1 17 -1885340673 -1911304047 -620502768 -12484591
            12634379 -905426423 193086163 -15991873</internalNodes>
          <leafValues>
            -6.8839037418365479e-01 4.9591270089149475e-01</leafValues></_></weakClassifiers></_>
    <!-- stage 8 -->
    <_>
      <maxWeakCount>4</maxWeakCount>
      <stageThreshold>1.3319717347621918e-01</stageThreshold>
      <weakClassifiers>
        <_>
          <internalNodes>
            0 -1 13 -65793 -1118465 -69634 -48959490 -1048577 -270008321
            -1 -1</internalNodes>
          <leafValues>
            -4.0347072482109070e-01 7.4586033821105957e-01</leafValues></_>
        <_>
          <internalNodes>
            0 -1 11 -288663041 1225408626 4264081 628424992 1073815559
            25165954 1342245533 1836007735</internalNodes>
          <leafValues>
            -5.2929371595382690e-01 5.7418465614318848e-01</leafValues></_>
        <_>
          <internalNodes>
            0 -1 9 1562401232 -48033696 999357823 -16298095 1863383006
            -17522718 -1090487169 -27231123</internalNodes>
          <leafValues>
            -5.4045802354812622e-01 5.6741225719451904e-01</leafValues></_>
        <_>
          <internalNodes>
            0 -1 37 -109006372 -640056256 1074073600 -782925423 -7294776
            -1179106656 185313930 1066130331</internalNodes>
          <leafValues>
            -5.2302956581115723e-01 5.0294125080108643e-01</leafValues></_></weakClassifiers></_>
    <!-- stage 9 -->
    <_>
      <maxWeakCount>4</maxWeakCount>
      <stageThreshold>4.5283373445272446e-02</stageThreshold>
      <weakClassifiers>
        <_>
          <internalNodes>
            0 -1 35 -540685 -1 -2228393 268435279 -8389264 -1 -10625776
            -35</internalNodes>
          <leafValues>
            -4.9799734354019165e-01 7.0247375965118408e-01</leafValues></_>
        <_>
          <internalNodes>
            0 -1 33 -1995222657 419577881 1896940694 -1688829934
            -939316242 -355811321 2076895928 -320558968</internalNodes>
          <leafValues>
            -6.4737683534622192e-01 5.2068328857421875e-01</leafValues></_>
        <_>
          <internalNodes>
            0 -1 21 -1256656652 487657493 822464975 1575829507
            1477492946 -501694296 960666239 1061102331</internalNodes>
          <leafValues>
            -5.6322354078292847e-01 5.1441991329193115e-01</leafValues></_>
        <_>
          <internalNodes>
            0 -1 50 -4989729 -68714641 -150995017 -252449945 -622760
            -2059 -17768518 -13565957</internalNodes>
          <leafValues>
            -4.1999483108520508e-01 6.7623758316040039e-01</leafValues></_></weakClassifiers></_>
    <!-- stage 10 -->
    <_>
      <maxWeakCount>4</maxWeakCount>
      <stageThreshold>-5.4031465202569962e-02</stageThreshold>
      <weakClassifiers>
        <_>
          <internalNodes>
            0 -1 23 -1342181633 -272662529 -1 -234881025 805306365
            -268435457 805304319 -536870913</internalNodes>
          <leafValues>
            -5.8320838212966919e-01 6.8875700235366821e-01</leafValues></_>
        <_>
          <internalNodes>
            0 -1 25 429429200 421746576 -1079339791 530141392 237043146
            -4980813 -1346689093 -1075060813</internalNodes>
          <leafValues>
            -5.5278724431991577e-01 5.7079136371612549e-01</leafValues></_>
        <_>
          <internalNodes>
            0 -1 48 -146807467 -395116681 -1073872969 1987706741
            -33792676 -10518700 -196674 -336129</internalNodes>
          <leafValues>
            -4.5468553900718689e-01 5.9729242324829102e-01</leafValues></_>
        <_>
          <internalNodes>
            0 -1 5 -783550573 669074 1090519559 -276609533 1075380371
            2621450 -2146661665 115831635</internalNodes>
          <leafValues>
            -6.6228973865509033e-01 4.1307109594345093e-01</leafValues></_></weakClassifiers></_>
    <!-- stage 11 -->
    <_>
      <maxWeakCount>4</maxWeakCount>
      <stageThreshold>-5.9475652873516083e-02</stageThreshold>
      <weakClassifiers>
        <_>
          <internalNodes>
            0 -1 29 -1521474275 -787152560 1342206037 1375760385
            -2147430264 -805273584 -2130657120 -134160383</internalNodes>
          <leafValues>
            -6.3001745939254761e-01 6.5909814834594727e-01</leafValues></_>
        <_>
          <internalNodes>
            0 -1 51 -143131171 -33570817 -335815169 -503980417
            -143134632 -145227820 -1078411654 -347560437</internalNodes>
          <leafValues>
            -4.1780337691307068e-01 6.3632911443710327e-01</leafValues></_>
        <_>
          <internalNodes>
            0 -1 8 -244846337 -705640325 -1376907841 -676231128
            -92778272 1571967475 1583093759 1833140179</internalNodes>
          <leafValues>
            -4.7730094194412231e-01 5.8348685503005981e-01</leafValues></_>
        <_>
          <internalNodes>
            0 -1 34 -624165005 1476984835 310580565 1076822016
            -2000956813 134488073 -1433753583 -1608876021</internalNodes>
          <leafValues>
            -6.5406215190887451e-01 4.1151362657546997e-01</leafValues></_></weakClassifiers></_>
    <!-- stage 12 -->
    <_>
      <maxWeakCount>4</maxWeakCount>
      <stageThreshold>-2.0513144135475159e-01</stageThreshold>
      <weakClassifiers>
        <_>
          <internalNodes>
            0 -1 44 -1149512363 1970664817 1073741813 134281218 -8388791
            -547488427 2147483647 -8388641</internalNodes>
          <leafValues>
            -5.1445084810256958e-01 6.8351066112518311e-01</leafValues></_>
        <_>
          <internalNodes>
            0 -1 18 -1409157863 -989777920 553718272 -218038271 16830467
            -1191182336 1073741826 -553611262</internalNodes>
          <leafValues>
            -7.0101851224899292e-01 4.3906065821647644e-01</leafValues></_>
        <_>
          <internalNodes>
            0 -1 6 16896019 -721387433 1 -784309310 128 -1718288182 0
            122933915</internalNodes>
          <leafValues>
            -6.4550650119781494e-01 4.2169919610023499e-01</leafValues></_>
        <_>
          <internalNodes>
            0 -1 49 -623643778 -1861189495 -1073512310 -648970239
            -786834808 -131030507 570986506 429075295</internalNodes>
          <leafValues>
            -5.5144041776657104e-01 4.7587811946868896e-01</leafValues></_></weakClassifiers></_>
    <!-- stage 13 -->
    <_>
      <maxWeakCount>5</maxWeakCount>
      <stageThreshold>-4.4011327624320984e-01</stageThreshold>
      <weakClassifiers>
        <_>
          <internalNodes>
            0 -1 28 -1073742898 -1 -49698 -197662 -4 -1 -134234724
            -67110410</internalNodes>
          <leafValues>
            -4.1813260316848755e-01 6.7848700284957886e-01</leafValues></_>
        <_>
          <internalNodes>
            0 -1 39 993566136 -1140887627 2130706367 -1207959723
            -1082212868 -229377 -1165829 -1080402239</internalNodes>
          <leafValues>
            -4.9164378643035889e-01 5.3232693672180176e-01</leafValues></_>
        <_>
          <internalNodes>
            0 -1 47 -8913025 -1837694977 -45 -226557982 -8913060
            -9078915 -33751042 -536879137</internalNodes>
          <leafValues>
            -4.4255346059799194e-01 6.0869008302688599e-01</leafValues></_>
        <_>
          <internalNodes>
            0 -1 0 -991517134 -170161119 1684744223 133106734 -562566417
            -1462139650 -456708373 -559972150</internalNodes>
          <leafValues>
            -4.3418154120445251e-01 5.5274164676666260e-01</leafValues></_>
        <_>
          <internalNodes>
            0 -1 30 -473830398 -988720815 -1048458227 -243215983
            -1056919437 -1862270976 -1056849016 -125534072</internalNodes>
          <leafValues>
            -8.2923620939254761e-01 2.9515460133552551e-01</leafValues></_></weakClassifiers></_>
    <!-- stage 14 -->
    <_>
      <maxWeakCount>4</maxWeakCount>
      <stageThreshold>3.2173389196395874e-01</stageThreshold>
      <weakClassifiers>
        <_>
          <internalNodes>
            0 -1 38 -2055159816 -717787788 1604205661 1576944660
            926033914 -1076690956 898913726 -1048046523</internalNodes>
          <leafValues>
            -3.7341773509979248e-01 7.4636626243591309e-01</leafValues></_>
        <_>
          <internalNodes>
            0 -1 1 1546031130 -75583760 -317391751 -1588840818
            -496392536 -839207343 -1558380561 -1459065155</internalNodes>
          <leafValues>
            -4.5276835560798645e-01 6.6029262542724609e-01</leafValues></_>
        <_>
          <internalNodes>
            0 -1 4 1908496592 -1786707775 268439576 69897 -2147329832
            437256320 1073752260 2101312</internalNodes>
          <leafValues>
            -5.6641763448715210e-01 5.3462481498718262e-01</leafValues></_>
        <_>
          <internalNodes>
            0 -1 3 -1002192854 1242259853 268435495 -215248629
            1074827720 1695023104 138445195 -769927025</internalNodes>
          <leafValues>
            -4.9976581335067749e-01 6.2393480539321899e-01</leafValues></_></weakClassifiers></_>
    <!-- stage 15 -->
    <_>
      <maxWeakCount>2</maxWeakCount>
      <stageThreshold>2.5442093610763550e-01</stageThreshold>
      <weakClassifiers>
        <_>
          <internalNodes>
            0 -1 32 488805520 -1120878936 1862045045 -1358713436
            975740668 1064853374 477377753 -1199045331</internalNodes>
          <leafValues>
            -3.8334858417510986e-01 8.1281167268753052e-01</leafValues></_>
        <_>
          <internalNodes>
            0 -1 52 -1010777666 1476395008 1073741834 16810256
            -939392499 1073774592 33622155 537121611</internalNodes>
          <leafValues>
            -5.5839073657989502e-01 7.3368585109710693e-01</leafValues></_></weakClassifiers></_>
    <!-- stage 16 -->
    <_>
      <maxWeakCount>2</maxWeakCount>
      <stageThreshold>2.3182740807533264e-01</stageThreshold>
      <weakClassifiers>
        <_>
          <internalNodes>
            0 -1 2 16720832 -1039856600 748989600 1085443204 2113775298
            73665604 82112037 141591582</internalNodes>
          <leafValues>
            -5.0527322292327881e-01 8.3816331624984741e-01</leafValues></_>
        <_>
          <internalNodes>
            0 -1 7 -1610890231 -2143214072 1047137586 -1738466528
            1582832844 4513101 279729518 385905942</internalNodes>
          <leafValues>
            -6.0633593797683716e-01 8.3723759651184082e-01</leafValues></_></weakClassifiers></_></stages>
  <features>
    <_>
      <rect>
        0 22 7 2</rect></_>
    <_>
      <rect>
        0 24 8 3</rect></_>
    <_>
      <rect>
        4 19 3 4</rect></_>
    <_>
      <rect>
        4 21 3 2</rect></_>
    <_>
      <rect>
        6 1 9 2</rect></_>
    <_>
      <rect>
        7 17 2 2</rect></_>
    <_>
      <rect>
        7 17 4 3</rect></_>
    <_>
      <rect>
        7 21 2 2</rect></_>
    <_>
      <rect>
        7 22 4 2</rect></_>
    <_>
      <rect>
        7 25 6 2</rect></_>
    <_>
      <rect>
        8 11 6 2</rect></_>
    <_>
      <rect>
        8 16 2 3</rect></_>
    <_>
      <rect>
        9 13 3 2</rect></_>
    <_>
      <rect>
        10 13 3 4</rect></_>
    <_>
      <rect>
        10 17 1 1</rect></_>
    <_>
      <rect>
        11 6 6 8</rect></_>
    <_>
      <rect>
        11 11 4 4</rect></_>
    <_>
      <rect>
        11 12 1 2</rect></_>
    <_>
      <rect>
        11 12 2 2</rect></_>
    <_>
      <rect>
        11 13 1 2</rect></_>
    <_>
      <rect>
        11 20 5 3</rect></_>
    <_>
      <rect>
        11 21 4 3</rect></_>
    <_>
      <rect>
        12 9 2 2</rect></_>
    <_>
      <rect>
        12 10 2 2</rect></_>
    <_>
      <rect>
        12 12 1 2</rect></_>
    <_>
      <rect>
        12 24 5 2</rect></_>
    <_>
      <rect>
        13 10 1 1</rect></_>
    <_>
      <rect>
        13 10 2 1</rect></_>
    <_>
      <rect>
        13 19 3 1</rect></_>
    <_>
      <rect>
        14 8 2 3</rect></_>
    <_>
      <rect>
        14 11 2 1</rect></_>
    <_>
      <rect>
        14 23 4 3</rect></_>
    <_>
      <rect>
        14 26 2 1</rect></_>
    <_>
      <rect>
        15 20 2 1</rect></_>
    <_>
      <rect>
        16 14 2 2</rect></_>
    <_>
      <rect>
        16 15 2 2</rect></_>
    <_>
      <rect>
        16 15 3 3</rect></_>
    <_>
      <rect>
        16 21 4 3</rect></_>
    <_>
      <rect>
        16 25 3 2</rect></_>
    <_>
      <rect>
        16 26 1 1</rect></_>
    <_>
      <rect>
        16 26 2 1</rect></_>
    <_>
      <rect>
        17 12 2 4</rect></_>
    <_>
      <rect>
        17 14 3 2</rect></_>
    <_>
      <rect>
        17 15 2 2</rect></_>
    <_>
      <rect>
        18 11 2 4</rect></_>
    <_>
      <rect>
        18 15 2 2</rect></_>
    <_>
      <rect>
        20 14 1 2</rect></_>
    <_>
      <rect>
        20 15 2 2</rect></_>
    <_>
      <rect>
        21 15 1 2</rect></_>
    <_>
      <rect>
        21 18 2 3</rect></_>
    <_>
      <rect>
        22 17 1 1</rect></_>
    <_>
      <rect>
        22 18 1 1</rect></_>
    <_>
      <rect>
        22 19 2 3</rect></_></features></cascade>
</opencv_storage>
